function [Y,Xf,Af] = NNFC(X,~,~)
%MYNEURALNETWORKFUNCTION neural network simulation function.
%
% Auto-generated by MATLAB, 09-Jan-2026 16:17:37.
%
% [Y] = myNeuralNetworkFunction(X,~,~) takes these arguments:
%
%   X = 1xTS cell, 1 inputs over TS timesteps
%   Each X{1,ts} = Qx2 matrix, input #1 at timestep ts.
%
% and returns:
%   Y = 1xTS cell of 1 outputs over TS timesteps.
%   Each Y{1,ts} = Qx1 matrix, output #1 at timestep ts.
%
% where Q is number of samples (or series) and TS is the number of timesteps.

%#ok<*RPMT0>

% ===== NEURAL NETWORK CONSTANTS =====

% Input 1
x1_step1.xoffset = [300;650];
x1_step1.gain = [0.00210526315789474;0.000869565217391304];
x1_step1.ymin = -1;

% Layer 1
b1 = [-12.748992748469285985;-12.789979551244803346;12.538774770289904836;-11.932175742925558382;-12.14584314168319068;11.145227007447427781;-11.114595348870672353;11.048395049487941932;10.799318531016648848;10.148639793837167744;-9.9603738439743310096;-9.8556880008581710939;-9.3015419033230237744;8.8065841309095489464;-8.5565691344607959223;8.3186788015334940383;8.6290522133028080276;-7.6320905552980757847;-7.2062593443403164528;-7.0217212757604139384;6.6083907101048815491;-6.5346045950878046682;-6.0825234993257089045;-5.9494627614766804058;4.2485929864996831995;3.7279692158168713512;3.9626716138791588939;4.3631666235925017361;-3.9883195012772825194;-2.8488078310778277569;-3.5216809137155191678;-3.1773015711963257246;-4.4729123520981515227;2.9382066640577373384;-2.9513405075617864526;2.3611218935584461498;2.1376303428360281522;-1.8410984242033243685;-1.5680693810771628716;-1.0262767173135862731;-0.25669174175102799085;0.44187906521464992426;-0.13072202393477613813;-0.44822082410508690131;-0.25935770492476928339;-1.6410827554505122983;1.5069907755426397156;1.7724089874446946613;3.0923676732061275985;-2.6623805229864427879;3.2149191622500019605;3.8687605140067855558;2.6177378182786585903;2.1708643278560146861;-4.3953172548567334132;4.1585088082713586033;4.2232731864466428462;5.2482488189023666081;3.8375883688030540952;3.9559396052361250895;5.6348680257211247735;-5.8512742809883269146;6.3611126675561182608;6.7315302712999010026;6.6183625017417559988;6.9615575898633714758;7.6287986960987144158;-7.7553294785793820409;-8.0247246788273507434;-8.5141342883993260671;8.9216421800083018923;-8.8918876329276166359;-8.7966072848292515829;9.527640271782107817;10.052158218913312737;-10.45077982454622223;10.449408091377501151;11.18780742871877365;11.765546433029555828;-12.190345925547363848;-11.678061500892154001;-12.332707634057900492;-12.731523799896963922;12.626165374891183291;12.9072988599841878];
IW1_1 = [10.973014641746647868 7.0762369601301946531;12.694148234192466518 2.500968839283582934;-1.6691476382694296898 12.588843418569123145;9.6312496462001178088 -8.6534899187576979074;11.389450168832702559 4.9078511945504015301;-7.373285274946929313 10.6997929723438574;9.0234468192302461631 -9.2460828381616657623;-4.7907895620298868167 12.008002519500523775;-10.65035579648315256 6.7748222677607765618;-1.9658177568088210929 -12.748450814948636634;6.4926348272232159431 11.034941032778432302;8.4533806682499577079 9.3839846329565386185;0.70924195333189943291 -12.875697615820051567;-10.986265744887624862 6.8525343874306230418;8.4780274712664933645 9.7768470359510786238;-7.6088316595117735375 -10.399188673561409857;-1.1707297992285288224 12.551553116531579235;3.3391972611743252486 -12.690339197799326953;9.5563665098220980099 8.7860370995507981462;5.8260715499660644667 11.534596590500175495;-12.471547151404376308 0.062490412655466419378;13.245646136587790664 1.1499254199024491196;7.9628351476969241318 -9.9690946689629491573;4.3255564720095449616 12.117403822627029086;-6.1556478432571664072 11.700734609384074503;-5.6985892393953658797 11.87657635966459857;-9.4145022018982000844 9.4126133410552483838;-2.2075341342781684695 -12.801643391773156466;12.046560474053276124 -4.8802021815972702612;12.977785766453395766 2.2954312311208688868;9.9395794467895566271 -8.3703439833975323836;5.6771279139574906125 11.63058182425900533;1.060047974531476811 -12.414607338949304349;-9.2911612418788180889 -8.6197441051760819164;4.3300614417642009357 11.989249521236686746;-3.6965214071840990506 -12.362301272267798069;-5.5846049513937687792 -11.578983888696935622;7.9296998196273742465 10.201956782746579577;11.628184950588801527 5.709736321403549475;1.1715872677809033853 -12.806075978263706361;-1.9637412963561762247 -12.749972117384119841;9.9159186913165147104 8.286262336580479726;-9.2852567565278878448 -8.9636068272888280717;-3.48208765736555792 -12.439861452861514124;-9.4881279352750258482 -8.8823626399457964453;-12.622169997433294597 2.1787435398163279565;7.9483269495204744715 -10.133114002572726875;5.5901658181652669199 11.607298406520515144;6.3079434361090633843 -10.684612788612401602;-10.386477080002926243 7.9203771372878497559;10.900797604524772311 7.2023384185608714247;9.8013110086111776553 -8.4634406283601570919;5.2801478359862885625 11.854300987740446161;6.7650430284970228811 -11.823554269593371302;-4.0109009394267811643 12.007455000421440872;6.3107628407012059668 -11.578259807233449052;10.874001503728365492 7.3359737298095026858;2.6311026591009385456 -12.408439791075615233;7.4638205204912644319 11.388803819265252315;11.533472397857034153 -8.7685603172217980728;3.9932569296415665328 -12.168938613864247245;-10.567469352715642472 -8.1501527988051343243;5.7790619035124919378 -11.41623395192799606;10.001629736058804454 8.5032919768960226747;12.969691024961408132 2.5056233949266286665;6.4588084335624760257 11.214917060829844075;10.684911701937782169 -7.3908009728693562224;-10.58026674575811299 -8.1732728286866827005;-11.456238577227384923 5.1824446959046754912;-2.1977519247690171511 12.572421748493020743;12.587667653303576287 -1.7665293950338796236;-8.3199728679307671797 10.061535428958171323;-10.188598592482650318 -8.6730028186434999782;6.6235273140390527047 -11.077580503979707061;10.851235707027706567 7.6728481770744512147;-8.5150000006936679142 -9.8941600816232995186;6.5678455976148439888 -11.11114523005827337;1.7884138704026013578 12.568219457713503573;10.555360765324850902 6.6245670848877384884;-12.769991842937949755 -2.338900987750226701;-5.7215200666455103828 11.569989804031731495;-11.390278653535181874 -4.1778985947161562109;-11.388323950155880837 5.2258245583885694074;8.9756524064393303775 9.2802441657642340544;8.6961824031800780688 -9.5381779117875389318];

% Layer 2
b2 = -0.56299332211908015289;
LW2_1 = [-0.19479584325333842987 0.54359863042006684175 -1.1227607594413211434 0.036392527201273387749 -0.2746653853398533518 0.45347729200627406865 0.63366688721847552745 -0.074957605260146428772 0.55599622636362366901 0.20955903507707138167 0.13087786819681701544 -0.64837781431009300359 -0.28512676192291747101 -0.037761112130109353302 0.25042703349358147458 0.042991049145011325794 -0.46597253930885679241 0.17294240343062980414 0.13473952024188917687 -0.3157005529782237474 0.54971697492110449534 0.40304938943840989962 -0.111682862443388084 0.23235062886550839067 -0.30429636842327434376 0.4079356718066980414 -0.37391012458867883828 -0.27770078280554638672 -0.071933448276881473138 0.17276898472478499635 -0.29689802661874070688 0.25476315976760000037 0.22218549996121736423 0.23372419959111098708 -0.24654736705882976389 -0.11274900132703107036 0.031525325699376723076 0.38205855635299851292 -0.39678052427683208059 0.14326596522941251188 0.38645579473203678367 -0.4253954936111898899 -0.479914907997839979 -0.24655826512065273648 -0.034961365590640690326 0.074990505492802270182 -0.014937100885510531251 0.18491417266068593817 0.40195950447614525736 -0.81200615190848379754 -0.68543826916466332744 1.8197180293648049787 -0.10162807763421873031 -0.68435459236077345047 -0.13258073114693583183 -0.84378517862651170045 0.59256085148563608644 0.16830713378332221031 0.523210213756714837 -1.6750355574183068974 0.069687003990906021267 1.0768871978137155576 0.2660640232862334642 1.2636268861432802257 -0.28183771799978418748 0.47806692186866156513 1.2999934653597380319 1.5387179326315414407 0.99550654480078692998 0.14939842752676740778 0.21644524482336802151 1.3431156310801282139 -1.237897599736869525 -0.058996497929590559217 -1.7404489695971201435 -1.4402909002032628916 1.0211977242720280401 0.78676427025620532252 -1.6733112448718749921 -1.3069574157366121714 -0.18617288206503099235 1.9736458587795551178 -0.5843522765474691294 1.4482740197063432852 -0.25141488137703577044];

% Output 1
y1_step1.ymin = -1;
y1_step1.gain = 0.00834968479939882;
y1_step1.xoffset = 8;

% ===== SIMULATION ========

% Format Input Arguments
isCellX = iscell(X);
if ~isCellX
    X = {X};
end

% Dimensions
TS = size(X,2); % timesteps
if ~isempty(X)
    Q = size(X{1},1); % samples/series
else
    Q = 0;
end

% Allocate Outputs
Y = cell(1,TS);

% Time loop
for ts=1:TS

    % Input 1
    X{1,ts} = X{1,ts}';
    Xp1 = mapminmax_apply(X{1,ts},x1_step1);

    % Layer 1
    a1 = tansig_apply(repmat(b1,1,Q) + IW1_1*Xp1);

    % Layer 2
    a2 = repmat(b2,1,Q) + LW2_1*a1;

    % Output 1
    Y{1,ts} = mapminmax_reverse(a2,y1_step1);
    Y{1,ts} = Y{1,ts}';
end

% Final Delay States
Xf = cell(1,0);
Af = cell(2,0);

% Format Output Arguments
if ~isCellX
    Y = cell2mat(Y);
end
end

% ===== MODULE FUNCTIONS ========

% Map Minimum and Maximum Input Processing Function
function y = mapminmax_apply(x,settings)
y = bsxfun(@minus,x,settings.xoffset);
y = bsxfun(@times,y,settings.gain);
y = bsxfun(@plus,y,settings.ymin);
end

% Sigmoid Symmetric Transfer Function
function a = tansig_apply(n,~)
a = 2 ./ (1 + exp(-2*n)) - 1;
end

% Map Minimum and Maximum Output Reverse-Processing Function
function x = mapminmax_reverse(y,settings)
x = bsxfun(@minus,y,settings.ymin);
x = bsxfun(@rdivide,x,settings.gain);
x = bsxfun(@plus,x,settings.xoffset);
end
